const double w0[9] = {
  +1.0000000000000000000e+00,
  -5.7735026918962576451e-01,
  -4.0824829046386301634e-01,
  +0.0000000000000000000e+00,
  +1.1547005383792515290e+00,
  -4.0824829046386301631e-01,
  +0.0000000000000000000e+00,
  +0.0000000000000000000e+00,
  +1.2247448713915890490e+00 
};

const double t0[9] = {
  -5.0000000000000000000e-01,
  -2.8867513459481288225e-01,
  -8.1649658092772603273e-01,
  +2.8867513459481288225e-01,
  +8.3333333333333333337e-01,
  -4.7140452079103168292e-01,
  +8.1649658092772603273e-01,
  -4.7140452079103168292e-01,
  -3.3333333333333333332e-01 
};

const double w1[9] = {
  +1.0000000000000000000e+00,
  -5.7735026918962576451e-01,
  -4.0824829046386301634e-01,
  +0.0000000000000000000e+00,
  +1.1547005383792515290e+00,
  -4.0824829046386301642e-01,
  +0.0000000000000000000e+00,
  +0.0000000000000000000e+00,
  +1.2247448713915890491e+00 
};

const double t1[9] = {
  +5.0000000000000000000e-01,
  +2.8867513459481288225e-01,
  +8.1649658092772603267e-01,
  +8.6602540378443864679e-01,
  -1.6666666666666666668e-01,
  -4.7140452079103168295e-01,
  +0.0000000000000000000e+00,
  +9.4280904158206336590e-01,
  -3.3333333333333333337e-01 
};

const double w2[9] = {
  +1.0000000000000000000e+00,
  -5.7735026918962576451e-01,
  -4.0824829046386301631e-01,
  +0.0000000000000000000e+00,
  +1.1547005383792515290e+00,
  -4.0824829046386301636e-01,
  +0.0000000000000000000e+00,
  +0.0000000000000000000e+00,
  +1.2247448713915890490e+00 
};

const double t2[9] = {
  -1.0000000000000000000e+00,
  +0.0000000000000000000e+00,
  +0.0000000000000000000e+00,
  +0.0000000000000000000e+00,
  +3.3333333333333333334e-01,
  +9.4280904158206336584e-01,
  +0.0000000000000000000e+00,
  +9.4280904158206336590e-01,
  -3.3333333333333333334e-01 
};

const double w3[9] = {
  +1.0000000000000000000e+00,
  -5.7735026918962576451e-01,
  -4.0824829046386301636e-01,
  +0.0000000000000000000e+00,
  +1.1547005383792515290e+00,
  -4.0824829046386301634e-01,
  +0.0000000000000000000e+00,
  +0.0000000000000000000e+00,
  +1.2247448713915890491e+00 
};

const double t3[9] = {
  +1.0000000000000000000e+00,
  +0.0000000000000000000e+00,
  +0.0000000000000000000e+00,
  +0.0000000000000000000e+00,
  +1.0000000000000000000e+00,
  +0.0000000000000000000e+00,
  +0.0000000000000000000e+00,
  +0.0000000000000000000e+00,
  +1.0000000000000000000e+00 
};

